digraph Tree {
node [shape=box] ;
0 [label="X[2] <= 205.5\nmse = 0.638\nsamples = 28\nvalue = 1.071"] ;
1 [label="X[2] <= 200.0\nmse = 0.438\nsamples = 8\nvalue = 0.25"] ;
0 -> 1 [labeldistance=2.5, labelangle=45, headlabel="True"] ;
2 [label="mse = 0.0\nsamples = 5\nvalue = 0.0"] ;
1 -> 2 ;
3 [label="X[0] <= 79.0\nmse = 0.889\nsamples = 3\nvalue = 0.667"] ;
1 -> 3 ;
4 [label="mse = 0.0\nsamples = 1\nvalue = 2.0"] ;
3 -> 4 ;
5 [label="mse = 0.0\nsamples = 2\nvalue = 0.0"] ;
3 -> 5 ;
6 [label="X[3] <= 5.5\nmse = 0.34\nsamples = 20\nvalue = 1.4"] ;
0 -> 6 [labeldistance=2.5, labelangle=-45, headlabel="False"] ;
7 [label="X[0] <= 87.5\nmse = 0.249\nsamples = 19\nvalue = 1.474"] ;
6 -> 7 ;
8 [label="X[2] <= 227.0\nmse = 0.198\nsamples = 11\nvalue = 1.727"] ;
7 -> 8 ;
9 [label="X[2] <= 220.0\nmse = 0.25\nsamples = 6\nvalue = 1.5"] ;
8 -> 9 ;
10 [label="mse = 0.0\nsamples = 3\nvalue = 2.0"] ;
9 -> 10 ;
11 [label="mse = 0.0\nsamples = 3\nvalue = 1.0"] ;
9 -> 11 ;
12 [label="mse = 0.0\nsamples = 5\nvalue = 2.0"] ;
8 -> 12 ;
13 [label="X[0] <= 99.5\nmse = 0.109\nsamples = 8\nvalue = 1.125"] ;
7 -> 13 ;
14 [label="mse = 0.0\nsamples = 5\nvalue = 1.0"] ;
13 -> 14 ;
15 [label="X[0] <= 101.5\nmse = 0.222\nsamples = 3\nvalue = 1.333"] ;
13 -> 15 ;
16 [label="mse = 0.0\nsamples = 1\nvalue = 2.0"] ;
15 -> 16 ;
17 [label="mse = 0.0\nsamples = 2\nvalue = 1.0"] ;
15 -> 17 ;
18 [label="mse = 0.0\nsamples = 1\nvalue = 0.0"] ;
6 -> 18 ;
}